digraph Tree {
node [shape=box, fontname="helvetica"] ;
edge [fontname="helvetica"] ;
0 [label="year <= 7.5\nsquared_error = 0.691\nsamples = 6324\nvalue = 12.995"] ;
1 [label="transmission <= 0.5\nsquared_error = 0.458\nsamples = 4302\nvalue = 13.33"] ;
0 -> 1 [labeldistance=2.5, labelangle=45, headlabel="True"] ;
2 [label="fuel <= 1.5\nsquared_error = 0.228\nsamples = 3575\nvalue = 13.158"] ;
1 -> 2 ;
3 [label="year <= 3.5\nsquared_error = 0.182\nsamples = 1496\nvalue = 12.938"] ;
2 -> 3 ;
4 [label="seller_type <= 1.5\nsquared_error = 0.137\nsamples = 731\nvalue = 13.129"] ;
3 -> 4 ;
5 [label="km_driven <= 155.723\nsquared_error = 0.134\nsamples = 622\nvalue = 13.085"] ;
4 -> 5 ;
6 [label="squared_error = 0.116\nsamples = 316\nvalue = 13.178"] ;
5 -> 6 ;
7 [label="squared_error = 0.134\nsamples = 306\nvalue = 12.988"] ;
5 -> 7 ;
8 [label="km_driven <= 135.013\nsquared_error = 0.078\nsamples = 109\nvalue = 13.382"] ;
4 -> 8 ;
9 [label="squared_error = 0.078\nsamples = 42\nvalue = 13.512"] ;
8 -> 9 ;
10 [label="squared_error = 0.06\nsamples = 67\nvalue = 13.301"] ;
8 -> 10 ;
11 [label="year <= 5.5\nsquared_error = 0.158\nsamples = 765\nvalue = 12.755"] ;
3 -> 11 ;
12 [label="seller_type <= 1.5\nsquared_error = 0.143\nsamples = 467\nvalue = 12.877"] ;
11 -> 12 ;
13 [label="squared_error = 0.145\nsamples = 397\nvalue = 12.84"] ;
12 -> 13 ;
14 [label="squared_error = 0.081\nsamples = 70\nvalue = 13.084"] ;
12 -> 14 ;
15 [label="year <= 6.5\nsquared_error = 0.12\nsamples = 298\nvalue = 12.564"] ;
11 -> 15 ;
16 [label="squared_error = 0.111\nsamples = 146\nvalue = 12.634"] ;
15 -> 16 ;
17 [label="squared_error = 0.121\nsamples = 152\nvalue = 12.497"] ;
15 -> 17 ;
18 [label="year <= 5.5\nsquared_error = 0.202\nsamples = 2079\nvalue = 13.316"] ;
2 -> 18 ;
19 [label="year <= 2.5\nsquared_error = 0.153\nsamples = 1402\nvalue = 13.456"] ;
18 -> 19 ;
20 [label="fuel <= 3.0\nsquared_error = 0.14\nsamples = 361\nvalue = 13.674"] ;
19 -> 20 ;
21 [label="squared_error = 0.126\nsamples = 350\nvalue = 13.698"] ;
20 -> 21 ;
22 [label="squared_error = 0.006\nsamples = 11\nvalue = 12.918"] ;
20 -> 22 ;
23 [label="year <= 3.5\nsquared_error = 0.135\nsamples = 1041\nvalue = 13.38"] ;
19 -> 23 ;
24 [label="squared_error = 0.119\nsamples = 370\nvalue = 13.479"] ;
23 -> 24 ;
25 [label="squared_error = 0.135\nsamples = 671\nvalue = 13.325"] ;
23 -> 25 ;
26 [label="seller_type <= 2.5\nsquared_error = 0.178\nsamples = 677\nvalue = 13.026"] ;
18 -> 26 ;
27 [label="year <= 6.5\nsquared_error = 0.175\nsamples = 651\nvalue = 13.006"] ;
26 -> 27 ;
28 [label="squared_error = 0.153\nsamples = 314\nvalue = 13.123"] ;
27 -> 28 ;
29 [label="squared_error = 0.171\nsamples = 337\nvalue = 12.897"] ;
27 -> 29 ;
30 [label="squared_error = 0.0\nsamples = 26\nvalue = 13.528"] ;
26 -> 30 ;
31 [label="fuel <= 1.5\nsquared_error = 0.719\nsamples = 727\nvalue = 14.18"] ;
1 -> 31 ;
32 [label="seller_type <= 1.5\nsquared_error = 0.535\nsamples = 358\nvalue = 13.707"] ;
31 -> 32 ;
33 [label="year <= 4.5\nsquared_error = 0.331\nsamples = 152\nvalue = 13.428"] ;
32 -> 33 ;
34 [label="year <= 2.5\nsquared_error = 0.331\nsamples = 124\nvalue = 13.519"] ;
33 -> 34 ;
35 [label="squared_error = 0.121\nsamples = 86\nvalue = 13.432"] ;
34 -> 35 ;
36 [label="squared_error = 0.75\nsamples = 38\nvalue = 13.716"] ;
34 -> 36 ;
37 [label="owner <= 1.5\nsquared_error = 0.127\nsamples = 28\nvalue = 13.022"] ;
33 -> 37 ;
38 [label="squared_error = 0.155\nsamples = 18\nvalue = 13.113"] ;
37 -> 38 ;
39 [label="squared_error = 0.037\nsamples = 10\nvalue = 12.86"] ;
37 -> 39 ;
40 [label="km_driven <= 106.059\nsquared_error = 0.587\nsamples = 206\nvalue = 13.913"] ;
32 -> 40 ;
41 [label="owner <= 0.5\nsquared_error = 0.109\nsamples = 80\nvalue = 13.516"] ;
40 -> 41 ;
42 [label="squared_error = 0.0\nsamples = 1\nvalue = 15.644"] ;
41 -> 42 ;
43 [label="squared_error = 0.052\nsamples = 79\nvalue = 13.489"] ;
41 -> 43 ;
44 [label="year <= 1.5\nsquared_error = 0.727\nsamples = 126\nvalue = 14.164"] ;
40 -> 44 ;
45 [label="squared_error = 0.24\nsamples = 32\nvalue = 15.239"] ;
44 -> 45 ;
46 [label="squared_error = 0.365\nsamples = 94\nvalue = 13.799"] ;
44 -> 46 ;
47 [label="km_driven <= 213.304\nsquared_error = 0.468\nsamples = 369\nvalue = 14.64"] ;
31 -> 47 ;
48 [label="year <= 1.5\nsquared_error = 0.326\nsamples = 259\nvalue = 14.88"] ;
47 -> 48 ;
49 [label="km_driven <= 151.514\nsquared_error = 0.297\nsamples = 99\nvalue = 15.174"] ;
48 -> 49 ;
50 [label="squared_error = 0.173\nsamples = 92\nvalue = 15.271"] ;
49 -> 50 ;
51 [label="squared_error = 0.2\nsamples = 7\nvalue = 13.906"] ;
49 -> 51 ;
52 [label="seller_type <= 1.5\nsquared_error = 0.256\nsamples = 160\nvalue = 14.698"] ;
48 -> 52 ;
53 [label="squared_error = 0.472\nsamples = 40\nvalue = 14.342"] ;
52 -> 53 ;
54 [label="squared_error = 0.128\nsamples = 120\nvalue = 14.816"] ;
52 -> 54 ;
55 [label="km_driven <= 272.945\nsquared_error = 0.347\nsamples = 110\nvalue = 14.074"] ;
47 -> 55 ;
56 [label="year <= 6.5\nsquared_error = 0.32\nsamples = 57\nvalue = 14.29"] ;
55 -> 56 ;
57 [label="squared_error = 0.323\nsamples = 48\nvalue = 14.216"] ;
56 -> 57 ;
58 [label="squared_error = 0.126\nsamples = 9\nvalue = 14.681"] ;
56 -> 58 ;
59 [label="km_driven <= 300.831\nsquared_error = 0.272\nsamples = 53\nvalue = 13.843"] ;
55 -> 59 ;
60 [label="squared_error = 0.245\nsamples = 27\nvalue = 13.718"] ;
59 -> 60 ;
61 [label="squared_error = 0.267\nsamples = 26\nvalue = 13.972"] ;
59 -> 61 ;
62 [label="year <= 11.5\nsquared_error = 0.437\nsamples = 2022\nvalue = 12.282"] ;
0 -> 62 [labeldistance=2.5, labelangle=-45, headlabel="False"] ;
63 [label="transmission <= 0.5\nsquared_error = 0.302\nsamples = 1451\nvalue = 12.486"] ;
62 -> 63 ;
64 [label="fuel <= 1.5\nsquared_error = 0.248\nsamples = 1381\nvalue = 12.437"] ;
63 -> 64 ;
65 [label="year <= 9.5\nsquared_error = 0.191\nsamples = 546\nvalue = 12.201"] ;
64 -> 65 ;
66 [label="seller_type <= 1.5\nsquared_error = 0.201\nsamples = 309\nvalue = 12.3"] ;
65 -> 66 ;
67 [label="squared_error = 0.196\nsamples = 279\nvalue = 12.275"] ;
66 -> 67 ;
68 [label="squared_error = 0.191\nsamples = 30\nvalue = 12.533"] ;
66 -> 68 ;
69 [label="owner <= 3.5\nsquared_error = 0.148\nsamples = 237\nvalue = 12.072"] ;
65 -> 69 ;
70 [label="squared_error = 0.136\nsamples = 224\nvalue = 12.092"] ;
69 -> 70 ;
71 [label="squared_error = 0.235\nsamples = 13\nvalue = 11.729"] ;
69 -> 71 ;
72 [label="year <= 9.5\nsquared_error = 0.226\nsamples = 835\nvalue = 12.591"] ;
64 -> 72 ;
73 [label="km_driven <= 492.661\nsquared_error = 0.211\nsamples = 616\nvalue = 12.653"] ;
72 -> 73 ;
74 [label="squared_error = 0.203\nsamples = 599\nvalue = 12.641"] ;
73 -> 74 ;
75 [label="squared_error = 0.308\nsamples = 17\nvalue = 13.069"] ;
73 -> 75 ;
76 [label="km_driven <= 453.767\nsquared_error = 0.226\nsamples = 219\nvalue = 12.416"] ;
72 -> 76 ;
77 [label="squared_error = 0.196\nsamples = 200\nvalue = 12.374"] ;
76 -> 77 ;
78 [label="squared_error = 0.326\nsamples = 19\nvalue = 12.858"] ;
76 -> 78 ;
79 [label="fuel <= 1.5\nsquared_error = 0.386\nsamples = 70\nvalue = 13.455"] ;
63 -> 79 ;
80 [label="owner <= 2.5\nsquared_error = 0.208\nsamples = 23\nvalue = 12.905"] ;
79 -> 80 ;
81 [label="year <= 10.5\nsquared_error = 0.197\nsamples = 18\nvalue = 13.006"] ;
80 -> 81 ;
82 [label="squared_error = 0.178\nsamples = 13\nvalue = 13.128"] ;
81 -> 82 ;
83 [label="squared_error = 0.109\nsamples = 5\nvalue = 12.69"] ;
81 -> 83 ;
84 [label="km_driven <= 249.95\nsquared_error = 0.074\nsamples = 5\nvalue = 12.538"] ;
80 -> 84 ;
85 [label="squared_error = 0.009\nsamples = 2\nvalue = 12.64"] ;
84 -> 85 ;
86 [label="squared_error = 0.105\nsamples = 3\nvalue = 12.47"] ;
84 -> 86 ;
87 [label="km_driven <= 415.058\nsquared_error = 0.252\nsamples = 47\nvalue = 13.724"] ;
79 -> 87 ;
88 [label="km_driven <= 295.709\nsquared_error = 0.219\nsamples = 46\nvalue = 13.752"] ;
87 -> 88 ;
89 [label="squared_error = 0.144\nsamples = 19\nvalue = 13.917"] ;
88 -> 89 ;
90 [label="squared_error = 0.24\nsamples = 27\nvalue = 13.636"] ;
88 -> 90 ;
91 [label="squared_error = 0.0\nsamples = 1\nvalue = 12.409"] ;
87 -> 91 ;
92 [label="year <= 15.5\nsquared_error = 0.403\nsamples = 571\nvalue = 11.763"] ;
62 -> 92 ;
93 [label="fuel <= 1.5\nsquared_error = 0.336\nsamples = 434\nvalue = 11.923"] ;
92 -> 93 ;
94 [label="year <= 14.5\nsquared_error = 0.217\nsamples = 260\nvalue = 11.73"] ;
93 -> 94 ;
95 [label="km_driven <= 1001.889\nsquared_error = 0.199\nsamples = 213\nvalue = 11.799"] ;
94 -> 95 ;
96 [label="squared_error = 0.19\nsamples = 212\nvalue = 11.792"] ;
95 -> 96 ;
97 [label="squared_error = -0.0\nsamples = 1\nvalue = 13.218"] ;
95 -> 97 ;
98 [label="owner <= 1.5\nsquared_error = 0.181\nsamples = 47\nvalue = 11.418"] ;
94 -> 98 ;
99 [label="squared_error = 0.043\nsamples = 9\nvalue = 11.149"] ;
98 -> 99 ;
100 [label="squared_error = 0.192\nsamples = 38\nvalue = 11.482"] ;
98 -> 100 ;
101 [label="transmission <= 0.5\nsquared_error = 0.376\nsamples = 174\nvalue = 12.211"] ;
93 -> 101 ;
102 [label="km_driven <= 390.192\nsquared_error = 0.329\nsamples = 167\nvalue = 12.161"] ;
101 -> 102 ;
103 [label="squared_error = 0.293\nsamples = 130\nvalue = 12.049"] ;
102 -> 103 ;
104 [label="squared_error = 0.257\nsamples = 37\nvalue = 12.554"] ;
102 -> 104 ;
105 [label="km_driven <= 307.253\nsquared_error = 0.042\nsamples = 7\nvalue = 13.394"] ;
101 -> 105 ;
106 [label="squared_error = 0.003\nsamples = 3\nvalue = 13.55"] ;
105 -> 106 ;
107 [label="squared_error = 0.038\nsamples = 4\nvalue = 13.276"] ;
105 -> 107 ;
108 [label="year <= 18.5\nsquared_error = 0.274\nsamples = 137\nvalue = 11.255"] ;
92 -> 108 ;
109 [label="km_driven <= 194.984\nsquared_error = 0.264\nsamples = 88\nvalue = 11.395"] ;
108 -> 109 ;
110 [label="km_driven <= 180.144\nsquared_error = 0.093\nsamples = 8\nvalue = 10.968"] ;
109 -> 110 ;
111 [label="squared_error = 0.061\nsamples = 4\nvalue = 11.179"] ;
110 -> 111 ;
112 [label="squared_error = 0.036\nsamples = 4\nvalue = 10.757"] ;
110 -> 112 ;
113 [label="transmission <= 0.5\nsquared_error = 0.261\nsamples = 80\nvalue = 11.438"] ;
109 -> 113 ;
114 [label="squared_error = 0.249\nsamples = 79\nvalue = 11.424"] ;
113 -> 114 ;
115 [label="squared_error = -0.0\nsamples = 1\nvalue = 12.525"] ;
113 -> 115 ;
116 [label="km_driven <= 427.995\nsquared_error = 0.195\nsamples = 49\nvalue = 11.005"] ;
108 -> 116 ;
117 [label="fuel <= 1.5\nsquared_error = 0.102\nsamples = 45\nvalue = 10.915"] ;
116 -> 117 ;
118 [label="squared_error = 0.091\nsamples = 42\nvalue = 10.881"] ;
117 -> 118 ;
119 [label="squared_error = 0.015\nsamples = 3\nvalue = 11.397"] ;
117 -> 119 ;
120 [label="year <= 22.0\nsquared_error = 0.139\nsamples = 4\nvalue = 12.01"] ;
116 -> 120 ;
121 [label="squared_error = 0.024\nsamples = 3\nvalue = 11.809"] ;
120 -> 121 ;
122 [label="squared_error = -0.0\nsamples = 1\nvalue = 12.612"] ;
120 -> 122 ;
}